{"architecture":[2,16,16,2],"layers":[{"W":[[-0.09059111028909683,-0.09062869846820831,0.25819095969200134,0.040071289986371994,0.07230652868747711,-0.6958838701248169,0.4698156416416168,-0.2879093289375305,-0.30606600642204285,0.6369978189468384,0.32376596331596375,-0.1300887167453766,0.06525014340877533,0.6257625818252563,-0.1870453953742981,0.11137624830007553],[-0.12777969241142273,-0.13968385756015778,-0.1859285980463028,-1.592223048210144,0.13021714985370636,-1.7293552160263062,-0.15909576416015625,0.8250706791877747,0.19749145209789276,0.06408749520778656,-0.4291808307170868,0.6024995446205139,0.1278734803199768,0.02773878164589405,1.213145136833191,0.15009798109531403]],"B":[0.870427131652832,0.9885436296463013,0.8240717649459839,-0.056884873658418655,-0.6887580156326294,-1.1728345155715942,0.962299644947052,0.7759819030761719,1.0291804075241089,1.4421237707138062,-1.0551202297210693,0.42485326528549194,-0.5267515778541565,0.5197095274925232,0.5361167192459106,-1.2414368391036987]},{"W":[[-0.42371782660484314,0.11076705157756805,-0.1179109662771225,-0.10936222970485687,0.23042616248130798,1.2902997732162476,0.1768866926431656,-1.1562951803207397,0.013084097765386105,-0.10973943024873734,-0.29850417375564575,-0.061933211982250214,0.2519911229610443,0.3272550106048584,-1.4442538022994995,-0.8143443465232849],[0.09710904210805893,-0.1465771645307541,-0.529181957244873,-0.7765004634857178,-0.14214466512203217,2.043996810913086,0.2706314027309418,-0.9958498477935791,0.346981942653656,0.2924272418022156,-0.6240345239639282,0.04217928647994995,-0.32971513271331787,-0.30653029680252075,-2.2815022468566895,-0.1446290910243988],[-0.7744983434677124,-0.1300484985113144,-0.14562290906906128,-0.3033820390701294,-0.23612073063850403,0.3490004539489746,0.13246363401412964,-0.5918651223182678,0.2437167465686798,-0.42197689414024353,-0.4506755769252777,-0.17075172066688538,-0.4655594825744629,-0.18149764835834503,-0.7031053900718689,0.1644088178873062],[-0.10342472791671753,-0.00251805130392313,-0.5269451141357422,0.2117837816476822,0.11049347370862961,-0.390324205160141,0.15648548305034637,-0.016551513224840164,0.014333349652588367,-0.22372908890247345,1.0193034410476685,0.290362149477005,-0.33154430985450745,0.42278483510017395,0.45773085951805115,-0.004035154357552528],[0.2325008660554886,-0.43270498514175415,0.8562101721763611,0.6714028120040894,0.24899159371852875,-1.1706485748291016,-0.2865482270717621,0.5917729735374451,-0.023665500804781914,-0.12798915803432465,0.10591190308332443,0.4012695252895355,-0.04982943460345268,0.4293033182621002,1.119834303855896,0.886989951133728],[-0.6927484273910522,0.04942946508526802,-1.000990390777588,-0.5647073984146118,-0.13478650152683258,0.21929341554641724,0.3949592411518097,-0.24254442751407623,0.7197305560112,-0.22857724130153656,1.7729318141937256,-0.07029739767313004,0.36313819885253906,-0.5195846557617188,0.23511198163032532,-0.6647583246231079],[-0.22580567002296448,0.06840312480926514,0.2948865294456482,-0.3968750834465027,-0.6750876307487488,1.201214075088501,0.11412201076745987,-0.3262774646282196,0.3681650757789612,0.37777552008628845,0.029037663713097572,0.20024310052394867,-0.2433088719844818,-0.10088346898555756,-0.5072543621063232,0.11655808240175247],[-0.17018693685531616,-0.25678762793540955,0.32862839102745056,-0.04935143515467644,-0.21734967827796936,0.4142245948314667,0.20672276616096497,0.3558902144432068,-0.3505038917064667,0.2319703996181488,-0.4319816529750824,-0.42035114765167236,0.0962340459227562,0.05083940178155899,-0.7457537055015564,0.2868354618549347],[0.21443095803260803,0.010093926452100277,-0.11096810549497604,-0.1806299388408661,-0.4318118989467621,0.802056610584259,-0.08446072041988373,-0.7027575373649597,0.05121679604053497,-0.23678912222385406,-0.005597870331257582,-0.11595916748046875,0.48305821418762207,0.179335817694664,-0.6232373118400574,-0.24551814794540405],[0.3910236656665802,0.24611198902130127,0.023986520245671272,0.37315258383750916,-0.7508499622344971,0.8219375014305115,0.12919607758522034,-0.3093441128730774,-0.395285964012146,-0.15722712874412537,-0.7960423231124878,0.06941939145326614,-0.02661546692252159,0.1346764713525772,-0.04627615213394165,-0.30819767713546753],[0.34697744250297546,-0.20718826353549957,0.06127629801630974,0.373750239610672,0.5480519533157349,-0.5612843036651611,-0.24562881886959076,0.3004082143306732,-0.27629759907722473,-0.14664863049983978,-0.181059330701828,0.1709633618593216,-0.12296934425830841,-0.43551185727119446,1.0586522817611694,-0.1412443071603775],[0.39594659209251404,0.32269859313964844,0.38456210494041443,-0.3188289999961853,0.14985911548137665,-0.09803160279989243,-0.07581138610839844,-0.2553943991661072,-0.1479112207889557,-0.2035144418478012,-0.4343636631965637,-0.6703828573226929,0.056508682668209076,0.2770455479621887,-0.5470731854438782,0.3654709458351135],[0.06481488794088364,-0.36928197741508484,0.42195820808410645,0.544516384601593,0.40338045358657837,-0.8271108269691467,0.017284391447901726,0.6522353291511536,-0.11077547818422318,-0.25814035534858704,-0.7604842185974121,0.26859110593795776,0.20957379043102264,-0.3071013391017914,0.9731426239013672,1.3058313131332397],[-0.3138471841812134,-0.03660266846418381,0.11100988835096359,-0.4420992136001587,-0.14555694162845612,0.8578445911407471,0.33911585807800293,-0.5388926267623901,0.12564876675605774,-0.03647414967417717,-0.33659374713897705,-0.4383750259876251,-0.22644472122192383,0.07510271668434143,-0.15113312005996704,0.447929710149765],[0.21642261743545532,-0.23647531867027283,-0.29664960503578186,-0.2332364320755005,-0.4574357271194458,0.5601339936256409,0.30552852153778076,0.41365379095077515,-0.4911949038505554,-0.2543622553348541,-0.27329790592193604,-0.6858357191085815,0.020132824778556824,0.26594576239585876,-0.6080167293548584,0.36579442024230957],[0.6265585422515869,-0.36701709032058716,-0.2356870025396347,1.1707922220230103,0.20478053390979767,-3.4867522716522217,-0.10950151085853577,2.1093943119049072,-0.6710372567176819,0.3284241259098053,1.859552264213562,0.1405448466539383,-0.2217671275138855,-0.10774891823530197,3.6996688842773438,0.19737406075000763]],"B":[0.28000447154045105,-0.03123488649725914,0.9924769401550293,0.2056325078010559,0.22547827661037445,0.00950582791119814,-0.25261709094047546,0.2476387470960617,-0.3847760856151581,0.036982327699661255,-1.7107882499694824,-0.23271968960762024,0.07716831564903259,0.13061806559562683,-0.24629345536231995,0.5426361560821533]},{"W":[[0.6239755749702454,0.10513221472501755],[0.33246779441833496,0.1647518128156662],[0.8854530453681946,-0.3365287780761719],[0.04171713814139366,0.0030800194945186377],[0.4883350729942322,-0.42129120230674744],[-0.7212591767311096,1.518629789352417],[-0.14590632915496826,-0.04159890487790108],[0.12346825748682022,-0.4238499104976654],[-0.5566108226776123,0.24535487592220306],[-0.010333229787647724,0.005065636243671179],[-0.12246335297822952,0.7966845631599426],[0.13752342760562897,0.23096591234207153],[0.3239632546901703,-0.08892124891281128],[0.4920508563518524,0.2378343939781189],[0.6030606031417847,-1.535109519958496],[-0.3458815813064575,-0.5223223567008972]],"B":[0.40987735986709595,-0.3452897071838379]}]}