#include <math.h>
#include <stdio.h>

const float W1[] = {
    -0.091000, -0.091000, 0.258000,  0.040000,  0.072000,  -0.696000, 0.470000,
    -0.288000, -0.306000, 0.637000,  0.324000,  -0.130000, 0.065000,  0.626000,
    -0.187000, 0.111000,  -0.128000, -0.140000, -0.186000, -1.592000, 0.130000,
    -1.729000, -0.159000, 0.825000,  0.197000,  0.064000,  -0.429000, 0.602000,
    0.128000,  0.028000,  1.213000,  0.150000};

const float B1[] = {0.870000,  0.989000,  0.824000,  -0.057000,
                    -0.689000, -1.173000, 0.962000,  0.776000,
                    1.029000,  1.442000,  -1.055000, 0.425000,
                    -0.527000, 0.520000,  0.536000,  -1.241000};

const float W2[] = {
    -0.424000, 0.111000,  -0.118000, -0.109000, 0.230000,  1.290000,  0.177000,
    -1.156000, 0.013000,  -0.110000, -0.299000, -0.062000, 0.252000,  0.327000,
    -1.444000, -0.814000, 0.097000,  -0.147000, -0.529000, -0.777000, -0.142000,
    2.044000,  0.271000,  -0.996000, 0.347000,  0.292000,  -0.624000, 0.042000,
    -0.330000, -0.307000, -2.282000, -0.145000, -0.774000, -0.130000, -0.146000,
    -0.303000, -0.236000, 0.349000,  0.132000,  -0.592000, 0.244000,  -0.422000,
    -0.451000, -0.171000, -0.466000, -0.181000, -0.703000, 0.164000,  -0.103000,
    -0.003000, -0.527000, 0.212000,  0.110000,  -0.390000, 0.156000,  -0.017000,
    0.014000,  -0.224000, 1.019000,  0.290000,  -0.332000, 0.423000,  0.458000,
    -0.004000, 0.233000,  -0.433000, 0.856000,  0.671000,  0.249000,  -1.171000,
    -0.287000, 0.592000,  -0.024000, -0.128000, 0.106000,  0.401000,  -0.050000,
    0.429000,  1.120000,  0.887000,  -0.693000, 0.049000,  -1.001000, -0.565000,
    -0.135000, 0.219000,  0.395000,  -0.243000, 0.720000,  -0.229000, 1.773000,
    -0.070000, 0.363000,  -0.520000, 0.235000,  -0.665000, -0.226000, 0.068000,
    0.295000,  -0.397000, -0.675000, 1.201000,  0.114000,  -0.326000, 0.368000,
    0.378000,  0.029000,  0.200000,  -0.243000, -0.101000, -0.507000, 0.117000,
    -0.170000, -0.257000, 0.329000,  -0.049000, -0.217000, 0.414000,  0.207000,
    0.356000,  -0.351000, 0.232000,  -0.432000, -0.420000, 0.096000,  0.051000,
    -0.746000, 0.287000,  0.214000,  0.010000,  -0.111000, -0.181000, -0.432000,
    0.802000,  -0.084000, -0.703000, 0.051000,  -0.237000, -0.006000, -0.116000,
    0.483000,  0.179000,  -0.623000, -0.246000, 0.391000,  0.246000,  0.024000,
    0.373000,  -0.751000, 0.822000,  0.129000,  -0.309000, -0.395000, -0.157000,
    -0.796000, 0.069000,  -0.027000, 0.135000,  -0.046000, -0.308000, 0.347000,
    -0.207000, 0.061000,  0.374000,  0.548000,  -0.561000, -0.246000, 0.300000,
    -0.276000, -0.147000, -0.181000, 0.171000,  -0.123000, -0.436000, 1.059000,
    -0.141000, 0.396000,  0.323000,  0.385000,  -0.319000, 0.150000,  -0.098000,
    -0.076000, -0.255000, -0.148000, -0.204000, -0.434000, -0.670000, 0.057000,
    0.277000,  -0.547000, 0.365000,  0.065000,  -0.369000, 0.422000,  0.545000,
    0.403000,  -0.827000, 0.017000,  0.652000,  -0.111000, -0.258000, -0.760000,
    0.269000,  0.210000,  -0.307000, 0.973000,  1.306000,  -0.314000, -0.037000,
    0.111000,  -0.442000, -0.146000, 0.858000,  0.339000,  -0.539000, 0.126000,
    -0.036000, -0.337000, -0.438000, -0.226000, 0.075000,  -0.151000, 0.448000,
    0.216000,  -0.236000, -0.297000, -0.233000, -0.457000, 0.560000,  0.306000,
    0.414000,  -0.491000, -0.254000, -0.273000, -0.686000, 0.020000,  0.266000,
    -0.608000, 0.366000,  0.627000,  -0.367000, -0.236000, 1.171000,  0.205000,
    -3.487000, -0.110000, 2.109000,  -0.671000, 0.328000,  1.860000,  0.141000,
    -0.222000, -0.108000, 3.700000,  0.197000};

const float B2[] = {0.280000,  -0.031000, 0.992000,  0.206000,
                    0.225000,  0.010000,  -0.253000, 0.248000,
                    -0.385000, 0.037000,  -1.711000, -0.233000,
                    0.077000,  0.131000,  -0.246000, 0.543000};

const float W3[] = {
    0.624000, 0.105000,  0.332000,  0.165000,  0.885000,  -0.337000, 0.042000,
    0.003000, 0.488000,  -0.421000, -0.721000, 1.519000,  -0.146000, -0.042000,
    0.123000, -0.424000, -0.557000, 0.245000,  -0.010000, 0.005000,  -0.122000,
    0.797000, 0.138000,  0.231000,  0.324000,  -0.089000, 0.492000,  0.238000,
    0.603000, -1.535000, -0.346000, -0.522000};

const float B3[] = {0.410000, -0.345000};

void model_predict(float input[2], float output[2]) {

  float h1[16];
  float h2[16];

  // Layer 1
  for (int j = 0; j < 16; j++) {
    h1[j] = B1[j];
    for (int i = 0; i < 2; i++) {
      h1[j] += input[i] * W1[i * 16 + j];
    }
    h1[j] = tanh(h1[j]);
  }

  // Layer 2
  for (int j = 0; j < 16; j++) {
    h2[j] = B2[j];
    for (int i = 0; i < 16; i++) {
      h2[j] += h1[i] * W2[i * 16 + j];
    }
    h2[j] = tanh(h2[j]);
  }

  // Output Layer
  for (int j = 0; j < 2; j++) {
    output[j] = B3[j];
    for (int i = 0; i < 16; i++) {
      output[j] += h2[i] * W3[i * 2 + j];
    }
  }
}

int main() {
  float input[2] = {7.0f, 3.0f};
  float output[2];

  model_predict(input, output);

  printf("Predicted theta1: %f\n", output[0]);
  printf("Predicted theta2: %f\n", output[1]);

  return 0;
}
